-185.074281339538
-7.69444962677678
17.6728255366642
-37.4509287087231
-26.5371364288938
40.7274457229468
-24.3117089867927
93.8501365571292
19.8401302583929
-23.8851829021567
166.422518756526
-4.17354354419457
-5.56867456697183
85.5087912922023
11.8768225360136
-117.259931457216
44.3051719211303
-45.9929494380298
-91.2692023238027
-62.9037190560829
-38.0715334640127
132.913614098954
-97.9432105166276
140.76314854909
30.9682967183287
11.2683768938612
93.6788580593881
-4.17998999984379
35.3630687870992
-11.9612991653174
-15.52695932316
-9.3342130397022
-8.01728440753858
2.8452713574585
7.57613944958191
4.09433175899115
69.787816403563
29.8662382339561
-61.9834811316676
-78.1200396130518
2.30656930128789
-97.6226134813706
0.672274331292111
-1.15972477357016
5.16071132000914
2.77916231046616
-71.088781276832
-1.3602265263673
-0.941103615651539
-0.424813528138733
70.3550367857977
0.534668148111265
5.10530456736115
1.37435175110283
-1.10261397651412
9.35126913114303

-0.734823435530948
1.47586740392165
-0.863923661188124
1.38531949404364
-1.08367178655637
0.0229882367004815
1.17078087735892
0.204744103490153
-0.701408467932575
0.392262648655303
-1.25534870579542
0.0886065404064861
-1.49836512734914
-0.450636344428826
0.998698063304981
0.924074720450157
-0.51722910329957
11.098559799136
93463348092
-2.31881024876532E-08
0.609041554791894
-0.472707001835827
0.495499122880714
-0.498319881153489
9.95907049405598
