-179.536329725147
126.0195890774
0.430939128735469
213.789156735499
33.3138389897362
150.02219871194
59.4643751594186
-97.9292476645823
96.3470279881044
-130.117826731688
-270.176152550886
-156.169036098863
254.164510712948
33.3657622844893
-35.7367490036423
192.108529806836
232.077763689379
-250.568891436162
-100.781526023296
156.960642680448
284.305365594297
-45.5135221144193
107.290919223153
173.085058544176
3.49533526292731
-2.66212051877785
128.335131968523
51.3861231683049
-68.5394540081528
-125.352346955387
31.5719415568358
-149.311911204555
6.34419829979686
-13.9358634296901
-41.9749275175633
-74.8825971073119
-13.1237544012092
-115.649891867408
303.005277332005
-4.88401709807473
-10.6136433477896
2.06806375710726
26.8463677970518
14.2652180297577
13.8369755067371
9.51679569743665
-30.6632146232797
-5.36565130277036
-7.04192993457194
34.4807181742473
-58.9171397562834
-41.9410315436431
-21.0996046233482
157.118157348116
-257.803990541948
91.3095009421577
-0.734823435530948
1.47586740392165
-0.863923661188124
1.38531949404364
-1.08367178655637
0.0229882367004815
1.17078087735892
0.204744103490153
-0.701408467932575
0.392262648655303
-1.25534870579542
0.0886065404064861
-1.49836512734914
-0.450636344428826
0.998698063304981
0.924074720450157
-0.51722910329957
11.098559799136
93463348092
-2.31881024876532E-08
0.609041554791894
-0.472707001835827
0.495499122880714
-0.498319881153489
9.95907049405598
