-400.374951315848
725.545883208156
-1088.56312471675
-451.32313234727
150.525480255792
3.32208623369324
40.7329461156122
-24.5345796970806
-892.991912917349
-324.846469827092
180.764120372883
10.0904823861355
1268.33969488029
-1516.43698792401
-71.6396026505909
504.075867576138
-91.5887822030623
21.9192291773604
-831.444913437144
504.777862481681
-388.060518803878
569.869159279267
-73.5922367859777
-22.8912198969991
-81.022100263011
-47.6811512604461
-10.3279463566396
-555.143669378941
93.6050031267998
0.782637808044268
169.344300124031
60.6644457147151
237.76131130205
-562.73282943453
1.59903641069084
3.41391701857829
0.73821411362766
0.66849815923185
0.083749490829068
0.512429494649372
0.0662055858719189
0.943853328909657
0.446336152239859
0.0649482333403771
0.926390902570631
0.0517690056244698
0.461314170836152
0.0648867767606335
0.577654254891749
0.116538356578228
0.88337025925674
0.110130447945618
0.453976751516562
0.0824398915667273
551.263322128151
-249.017091024847
231.21111744908
141.931532957974
38.0310358572273
9.08537270136113
-0.714657270518758
2.50521532642729
-0.650086310530049
0.0676161226765759
-0.594310376525216
-0.120066069654947
0.847312752014694
0.539857369784702
-2.6868562564794
3.10456500689037
1.45155186081672
0.157450289128798
2.75198595624118
10.9622585312144

348092
-2.31881024876532E-08
0.609041554791894
-0.472707001835827
0.495499122880714
-0.498319881153489
9.95907049405598
